digraph Tree {
node [shape=box] ;
0 [label="pclass <= 0.5\nentropy = 0.948\nsamples = 1047\nvalue = [663, 384]"] ;
1 [label="age <= 2.5\nentropy = 0.675\nsamples = 360\nvalue = [64, 296]"] ;
0 -> 1 [labeldistance=2.5, labelangle=45, headlabel="True"] ;
2 [label="sex <= 2.5\nentropy = 0.173\nsamples = 194\nvalue = [5, 189]"] ;
1 -> 2 ;
3 [label="age <= 1.5\nentropy = 0.918\nsamples = 3\nvalue = [1, 2]"] ;
2 -> 3 ;
4 [label="entropy = 0.0\nsamples = 1\nvalue = [1, 0]"] ;
3 -> 4 ;
5 [label="entropy = 0.0\nsamples = 2\nvalue = [0, 2]"] ;
3 -> 5 ;
6 [label="sex <= 24.5\nentropy = 0.147\nsamples = 191\nvalue = [4, 187]"] ;
2 -> 6 ;
7 [label="entropy = 0.0\nsamples = 61\nvalue = [0, 61]"] ;
6 -> 7 ;
8 [label="sex <= 26.5\nentropy = 0.198\nsamples = 130\nvalue = [4, 126]"] ;
6 -> 8 ;
9 [label="age <= 1.5\nentropy = 0.971\nsamples = 5\nvalue = [2, 3]"] ;
8 -> 9 ;
10 [label="entropy = 0.918\nsamples = 3\nvalue = [1, 2]"] ;
9 -> 10 ;
11 [label="entropy = 1.0\nsamples = 2\nvalue = [1, 1]"] ;
9 -> 11 ;
12 [label="age <= 1.5\nentropy = 0.118\nsamples = 125\nvalue = [2, 123]"] ;
8 -> 12 ;
13 [label="entropy = 0.0\nsamples = 76\nvalue = [0, 76]"] ;
12 -> 13 ;
14 [label="entropy = 0.246\nsamples = 49\nvalue = [2, 47]"] ;
12 -> 14 ;
15 [label="sex <= 38.5\nentropy = 0.939\nsamples = 166\nvalue = [59, 107]"] ;
1 -> 15 ;
16 [label="sex <= 1.5\nentropy = 0.912\nsamples = 153\nvalue = [50, 103]"] ;
15 -> 16 ;
17 [label="entropy = 0.0\nsamples = 5\nvalue = [0, 5]"] ;
16 -> 17 ;
18 [label="sex <= 12.0\nentropy = 0.923\nsamples = 148\nvalue = [50, 98]"] ;
16 -> 18 ;
19 [label="sex <= 5.5\nentropy = 0.98\nsamples = 12\nvalue = [7, 5]"] ;
18 -> 19 ;
20 [label="entropy = 0.918\nsamples = 6\nvalue = [2, 4]"] ;
19 -> 20 ;
21 [label="entropy = 0.65\nsamples = 6\nvalue = [5, 1]"] ;
19 -> 21 ;
22 [label="sex <= 32.5\nentropy = 0.9\nsamples = 136\nvalue = [43, 93]"] ;
18 -> 22 ;
23 [label="entropy = 0.916\nsamples = 127\nvalue = [42, 85]"] ;
22 -> 23 ;
24 [label="entropy = 0.503\nsamples = 9\nvalue = [1, 8]"] ;
22 -> 24 ;
25 [label="sex <= 44.0\nentropy = 0.89\nsamples = 13\nvalue = [9, 4]"] ;
15 -> 25 ;
26 [label="entropy = 0.0\nsamples = 5\nvalue = [5, 0]"] ;
25 -> 26 ;
27 [label="sex <= 55.0\nentropy = 1.0\nsamples = 8\nvalue = [4, 4]"] ;
25 -> 27 ;
28 [label="sex <= 46.0\nentropy = 0.985\nsamples = 7\nvalue = [4, 3]"] ;
27 -> 28 ;
29 [label="entropy = 0.971\nsamples = 5\nvalue = [3, 2]"] ;
28 -> 29 ;
30 [label="entropy = 1.0\nsamples = 2\nvalue = [1, 1]"] ;
28 -> 30 ;
31 [label="entropy = 0.0\nsamples = 1\nvalue = [0, 1]"] ;
27 -> 31 ;
32 [label="age <= 1.5\nentropy = 0.552\nsamples = 687\nvalue = [599, 88]"] ;
0 -> 32 [labeldistance=2.5, labelangle=-45, headlabel="False"] ;
33 [label="sex <= 36.5\nentropy = 0.83\nsamples = 145\nvalue = [107, 38]"] ;
32 -> 33 ;
34 [label="sex <= 33.5\nentropy = 0.927\nsamples = 73\nvalue = [48, 25]"] ;
33 -> 34 ;
35 [label="sex <= 28.5\nentropy = 0.847\nsamples = 62\nvalue = [45, 17]"] ;
34 -> 35 ;
36 [label="sex <= 24.5\nentropy = 0.975\nsamples = 27\nvalue = [16, 11]"] ;
35 -> 36 ;
37 [label="entropy = 0.75\nsamples = 14\nvalue = [11, 3]"] ;
36 -> 37 ;
38 [label="entropy = 0.961\nsamples = 13\nvalue = [5, 8]"] ;
36 -> 38 ;
39 [label="sex <= 32.25\nentropy = 0.661\nsamples = 35\nvalue = [29, 6]"] ;
35 -> 39 ;
40 [label="entropy = 0.684\nsamples = 33\nvalue = [27, 6]"] ;
39 -> 40 ;
41 [label="entropy = 0.0\nsamples = 2\nvalue = [2, 0]"] ;
39 -> 41 ;
42 [label="sex <= 35.5\nentropy = 0.845\nsamples = 11\nvalue = [3, 8]"] ;
34 -> 42 ;
43 [label="entropy = 0.0\nsamples = 4\nvalue = [0, 4]"] ;
42 -> 43 ;
44 [label="entropy = 0.985\nsamples = 7\nvalue = [3, 4]"] ;
42 -> 44 ;
45 [label="sex <= 75.5\nentropy = 0.681\nsamples = 72\nvalue = [59, 13]"] ;
33 -> 45 ;
46 [label="sex <= 60.5\nentropy = 0.655\nsamples = 71\nvalue = [59, 12]"] ;
45 -> 46 ;
47 [label="sex <= 47.5\nentropy = 0.729\nsamples = 59\nvalue = [47, 12]"] ;
46 -> 47 ;
48 [label="entropy = 0.592\nsamples = 28\nvalue = [24, 4]"] ;
47 -> 48 ;
49 [label="entropy = 0.824\nsamples = 31\nvalue = [23, 8]"] ;
47 -> 49 ;
50 [label="entropy = 0.0\nsamples = 12\nvalue = [12, 0]"] ;
46 -> 50 ;
51 [label="entropy = 0.0\nsamples = 1\nvalue = [0, 1]"] ;
45 -> 51 ;
52 [label="sex <= 12.5\nentropy = 0.444\nsamples = 542\nvalue = [492, 50]"] ;
32 -> 52 ;
53 [label="age <= 2.5\nentropy = 0.983\nsamples = 33\nvalue = [19, 14]"] ;
52 -> 53 ;
54 [label="sex <= 1.5\nentropy = 0.764\nsamples = 9\nvalue = [2, 7]"] ;
53 -> 54 ;
55 [label="entropy = 0.0\nsamples = 4\nvalue = [0, 4]"] ;
54 -> 55 ;
56 [label="sex <= 2.5\nentropy = 0.971\nsamples = 5\nvalue = [2, 3]"] ;
54 -> 56 ;
57 [label="entropy = 1.0\nsamples = 2\nvalue = [1, 1]"] ;
56 -> 57 ;
58 [label="entropy = 0.918\nsamples = 3\nvalue = [1, 2]"] ;
56 -> 58 ;
59 [label="sex <= 11.75\nentropy = 0.871\nsamples = 24\nvalue = [17, 7]"] ;
53 -> 59 ;
60 [label="sex <= 10.0\nentropy = 0.828\nsamples = 23\nvalue = [17, 6]"] ;
59 -> 60 ;
61 [label="entropy = 0.863\nsamples = 21\nvalue = [15, 6]"] ;
60 -> 61 ;
62 [label="entropy = 0.0\nsamples = 2\nvalue = [2, 0]"] ;
60 -> 62 ;
63 [label="entropy = 0.0\nsamples = 1\nvalue = [0, 1]"] ;
59 -> 63 ;
64 [label="sex <= 44.5\nentropy = 0.369\nsamples = 509\nvalue = [473, 36]"] ;
52 -> 64 ;
65 [label="sex <= 24.75\nentropy = 0.387\nsamples = 475\nvalue = [439, 36]"] ;
64 -> 65 ;
66 [label="age <= 2.5\nentropy = 0.289\nsamples = 138\nvalue = [131, 7]"] ;
65 -> 66 ;
67 [label="entropy = 0.0\nsamples = 31\nvalue = [31, 0]"] ;
66 -> 67 ;
68 [label="entropy = 0.349\nsamples = 107\nvalue = [100, 7]"] ;
66 -> 68 ;
69 [label="sex <= 32.25\nentropy = 0.423\nsamples = 337\nvalue = [308, 29]"] ;
65 -> 69 ;
70 [label="entropy = 0.466\nsamples = 252\nvalue = [227, 25]"] ;
69 -> 70 ;
71 [label="entropy = 0.274\nsamples = 85\nvalue = [81, 4]"] ;
69 -> 71 ;
72 [label="entropy = 0.0\nsamples = 34\nvalue = [34, 0]"] ;
64 -> 72 ;
}